<GAP_2019_4_25_-420_20_28_39_356>
<Potential init_args="IP GAP label=GAP_2019_4_25_-420_20_28_39_356" label="GAP_2019_4_25_-420_20_28_39_356" />
<GAP_params gap_version="1525123159" label="GAP_2019_4_25_-420_20_28_39_356">
  <GAP_data do_core="F">
    <e0 Z="1" value="-.96999999999999997" />
    <e0 Z="2" value="-.96999999999999997" />
    <e0 Z="3" value="-.96999999999999997" />
    <e0 Z="4" value="-.96999999999999997" />
    <e0 Z="5" value="-.96999999999999997" />
    <e0 Z="6" value="-.96999999999999997" />
    <e0 Z="7" value="-.96999999999999997" />
    <e0 Z="8" value="-.96999999999999997" />
    <e0 Z="9" value="-.96999999999999997" />
    <e0 Z="10" value="-.96999999999999997" />
    <e0 Z="11" value="-.96999999999999997" />
    <e0 Z="12" value="-.96999999999999997" />
    <e0 Z="13" value="-.96999999999999997" />
    <e0 Z="14" value="-.96999999999999997" />
    <e0 Z="15" value="-.96999999999999997" />
    <e0 Z="16" value="-.96999999999999997" />
    <e0 Z="17" value="-.96999999999999997" />
    <e0 Z="18" value="-.96999999999999997" />
    <e0 Z="19" value="-.96999999999999997" />
    <e0 Z="20" value="-.96999999999999997" />
    <e0 Z="21" value="-.96999999999999997" />
    <e0 Z="22" value="-.96999999999999997" />
    <e0 Z="23" value="-.96999999999999997" />
    <e0 Z="24" value="-.96999999999999997" />
    <e0 Z="25" value="-.96999999999999997" />
    <e0 Z="26" value="-.96999999999999997" />
    <e0 Z="27" value="-.96999999999999997" />
    <e0 Z="28" value="-.96999999999999997" />
    <e0 Z="29" value="-.96999999999999997" />
    <e0 Z="30" value="-.96999999999999997" />
    <e0 Z="31" value="-.96999999999999997" />
    <e0 Z="32" value="-.96999999999999997" />
    <e0 Z="33" value="-.96999999999999997" />
    <e0 Z="34" value="-.96999999999999997" />
    <e0 Z="35" value="-.96999999999999997" />
    <e0 Z="36" value="-.96999999999999997" />
    <e0 Z="37" value="-.96999999999999997" />
    <e0 Z="38" value="-.96999999999999997" />
    <e0 Z="39" value="-.96999999999999997" />
    <e0 Z="40" value="-.96999999999999997" />
    <e0 Z="41" value="-.96999999999999997" />
    <e0 Z="42" value="-.96999999999999997" />
    <e0 Z="43" value="-.96999999999999997" />
    <e0 Z="44" value="-.96999999999999997" />
    <e0 Z="45" value="-.96999999999999997" />
    <e0 Z="46" value="-.96999999999999997" />
    <e0 Z="47" value="-.96999999999999997" />
    <e0 Z="48" value="-.96999999999999997" />
    <e0 Z="49" value="-.96999999999999997" />
    <e0 Z="50" value="-.96999999999999997" />
    <e0 Z="51" value="-.96999999999999997" />
    <e0 Z="52" value="-.96999999999999997" />
    <e0 Z="53" value="-.96999999999999997" />
    <e0 Z="54" value="-.96999999999999997" />
    <e0 Z="55" value="-.96999999999999997" />
    <e0 Z="56" value="-.96999999999999997" />
    <e0 Z="57" value="-.96999999999999997" />
    <e0 Z="58" value="-.96999999999999997" />
    <e0 Z="59" value="-.96999999999999997" />
    <e0 Z="60" value="-.96999999999999997" />
    <e0 Z="61" value="-.96999999999999997" />
    <e0 Z="62" value="-.96999999999999997" />
    <e0 Z="63" value="-.96999999999999997" />
    <e0 Z="64" value="-.96999999999999997" />
    <e0 Z="65" value="-.96999999999999997" />
    <e0 Z="66" value="-.96999999999999997" />
    <e0 Z="67" value="-.96999999999999997" />
    <e0 Z="68" value="-.96999999999999997" />
    <e0 Z="69" value="-.96999999999999997" />
    <e0 Z="70" value="-.96999999999999997" />
    <e0 Z="71" value="-.96999999999999997" />
    <e0 Z="72" value="-.96999999999999997" />
    <e0 Z="73" value="-.96999999999999997" />
    <e0 Z="74" value="-.96999999999999997" />
    <e0 Z="75" value="-.96999999999999997" />
    <e0 Z="76" value="-.96999999999999997" />
    <e0 Z="77" value="-.96999999999999997" />
    <e0 Z="78" value="-.96999999999999997" />
    <e0 Z="79" value="-.96999999999999997" />
    <e0 Z="80" value="-.96999999999999997" />
    <e0 Z="81" value="-.96999999999999997" />
    <e0 Z="82" value="-.96999999999999997" />
    <e0 Z="83" value="-.96999999999999997" />
    <e0 Z="84" value="-.96999999999999997" />
    <e0 Z="85" value="-.96999999999999997" />
    <e0 Z="86" value="-.96999999999999997" />
    <e0 Z="87" value="-.96999999999999997" />
    <e0 Z="88" value="-.96999999999999997" />
    <e0 Z="89" value="-.96999999999999997" />
    <e0 Z="90" value="-.96999999999999997" />
    <e0 Z="91" value="-.96999999999999997" />
    <e0 Z="92" value="-.96999999999999997" />
    <e0 Z="93" value="-.96999999999999997" />
    <e0 Z="94" value="-.96999999999999997" />
    <e0 Z="95" value="-.96999999999999997" />
    <e0 Z="96" value="-.96999999999999997" />
    <e0 Z="97" value="-.96999999999999997" />
    <e0 Z="98" value="-.96999999999999997" />
    <e0 Z="99" value="-.96999999999999997" />
    <e0 Z="100" value="-.96999999999999997" />
    <e0 Z="101" value="-.96999999999999997" />
    <e0 Z="102" value="-.96999999999999997" />
    <e0 Z="103" value="-.96999999999999997" />
    <e0 Z="104" value="-.96999999999999997" />
    <e0 Z="105" value="-.96999999999999997" />
    <e0 Z="106" value="-.96999999999999997" />
    <e0 Z="107" value="-.96999999999999997" />
    <e0 Z="108" value="-.96999999999999997" />
    <e0 Z="109" value="-.96999999999999997" />
    <e0 Z="110" value="-.96999999999999997" />
    <e0 Z="111" value="-.96999999999999997" />
    <e0 Z="112" value="-.96999999999999997" />
    <e0 Z="113" value="-.96999999999999997" />
    <e0 Z="114" value="-.96999999999999997" />
    <e0 Z="115" value="-.96999999999999997" />
    <e0 Z="116" value="-.96999999999999997" />
  </GAP_data>
  <gpSparse label="GAP_2019_4_25_-420_20_28_39_356" n_coordinate="1">
    <gpCoordinates covariance_type="2" dimensions="325" label="GAP_2019_4_25_-420_20_28_39_3561" n_permutations="1" n_sparseX="200" signal_mean=".00000000000000000E+000" signal_variance="1.0000000000000000" sparseX_filename="GAPotential.soapparam" sparsified="T" zeta="4.0000000000000000">
      <descriptor>soap l_max=8 n_max=8 atom_sigma=0.5 zeta=4 cutoff=5.0 cutoff_transition_width=0.5 delta=1.0 f0=0.0 n_sparse=200 covariance_type=dot_product sparse_method=cur_points</descriptor>
      <permutation i="1">1  </permutation>
      <sparseX alpha="1457.6792546821475" i="1" sparseCutoff="1.0000000000000000" />
      <sparseX alpha="848.95945557105324" i="2" sparseCutoff="1.0000000000000000" />
      <sparseX alpha="1135.0037365393350" i="3" sparseCutoff="1.0000000000000000" />
      <sparseX alpha="-25.094694839626545" i="4" sparseCutoff="1.0000000000000000" />
      <sparseX alpha="-368.82993230772820" i="5" sparseCutoff="1.0000000000000000" />
      <sparseX alpha="440.56296979902550" i="6" sparseCutoff="1.0000000000000000" />
      <sparseX alpha="898.42728851683523" i="7" sparseCutoff="1.0000000000000000" />
      <sparseX alpha="904.94239717820233" i="8" sparseCutoff="1.0000000000000000" />
      <sparseX alpha="1064.2946497504256" i="9" sparseCutoff="1.0000000000000000" />
      <sparseX alpha="-132.48672056284710" i="10" sparseCutoff="1.0000000000000000" />
      <sparseX alpha="190.10728997045084" i="11" sparseCutoff="1.0000000000000000" />
      <sparseX alpha="-237.43485619485602" i="12" sparseCutoff="1.0000000000000000" />
      <sparseX alpha="330.65521615538728" i="13" sparseCutoff="1.0000000000000000" />
      <sparseX alpha="-1331.1902205290039" i="14" sparseCutoff="1.0000000000000000" />
      <sparseX alpha="-729.19307593542624" i="15" sparseCutoff="1.0000000000000000" />
      <sparseX alpha="1158.1654351207235" i="16" sparseCutoff="1.0000000000000000" />
      <sparseX alpha="372.83889103578275" i="17" sparseCutoff="1.0000000000000000" />
      <sparseX alpha="-90.096723622416121" i="18" sparseCutoff="1.0000000000000000" />
      <sparseX alpha="241.96667327732365" i="19" sparseCutoff="1.0000000000000000" />
      <sparseX alpha="-211.73325081067745" i="20" sparseCutoff="1.0000000000000000" />
      <sparseX alpha="235.38449920441238" i="21" sparseCutoff="1.0000000000000000" />
      <sparseX alpha="-2286.1535695393027" i="22" sparseCutoff="1.0000000000000000" />
      <sparseX alpha="671.79034081766292" i="23" sparseCutoff="1.0000000000000000" />
      <sparseX alpha="-1288.6266922322682" i="24" sparseCutoff="1.0000000000000000" />
      <sparseX alpha="-841.45146584036195" i="25" sparseCutoff="1.0000000000000000" />
      <sparseX alpha="398.67710101550813" i="26" sparseCutoff="1.0000000000000000" />
      <sparseX alpha="-658.60023167675240" i="27" sparseCutoff="1.0000000000000000" />
      <sparseX alpha="656.87277368538935" i="28" sparseCutoff="1.0000000000000000" />
      <sparseX alpha="1483.6080924058979" i="29" sparseCutoff="1.0000000000000000" />
      <sparseX alpha="-657.97705507338060" i="30" sparseCutoff="1.0000000000000000" />
      <sparseX alpha="1622.1070423107519" i="31" sparseCutoff="1.0000000000000000" />
      <sparseX alpha="-697.97872903829216" i="32" sparseCutoff="1.0000000000000000" />
      <sparseX alpha="-189.58613092441496" i="33" sparseCutoff="1.0000000000000000" />
      <sparseX alpha="502.45517737057003" i="34" sparseCutoff="1.0000000000000000" />
      <sparseX alpha="-736.19777155651889" i="35" sparseCutoff="1.0000000000000000" />
      <sparseX alpha="610.38294844164557" i="36" sparseCutoff="1.0000000000000000" />
      <sparseX alpha="-461.04860962618710" i="37" sparseCutoff="1.0000000000000000" />
      <sparseX alpha="1710.2649920330496" i="38" sparseCutoff="1.0000000000000000" />
      <sparseX alpha="-732.91571591489253" i="39" sparseCutoff="1.0000000000000000" />
      <sparseX alpha="1565.0568433862484" i="40" sparseCutoff="1.0000000000000000" />
      <sparseX alpha="-1064.0098683827357" i="41" sparseCutoff="1.0000000000000000" />
      <sparseX alpha="-668.21790148201421" i="42" sparseCutoff="1.0000000000000000" />
      <sparseX alpha="-360.14198707884634" i="43" sparseCutoff="1.0000000000000000" />
      <sparseX alpha="-938.15594593685978" i="44" sparseCutoff="1.0000000000000000" />
      <sparseX alpha="2254.5817511563114" i="45" sparseCutoff="1.0000000000000000" />
      <sparseX alpha="595.98314135129579" i="46" sparseCutoff="1.0000000000000000" />
      <sparseX alpha="-352.29933534940426" i="47" sparseCutoff="1.0000000000000000" />
      <sparseX alpha="-132.41142559278441" i="48" sparseCutoff="1.0000000000000000" />
      <sparseX alpha="-78.604572682899729" i="49" sparseCutoff="1.0000000000000000" />
      <sparseX alpha="581.27045299971007" i="50" sparseCutoff="1.0000000000000000" />
      <sparseX alpha="-994.65158105057549" i="51" sparseCutoff="1.0000000000000000" />
      <sparseX alpha="-911.11344006002457" i="52" sparseCutoff="1.0000000000000000" />
      <sparseX alpha="35.770343697331136" i="53" sparseCutoff="1.0000000000000000" />
      <sparseX alpha="-479.44298193410015" i="54" sparseCutoff="1.0000000000000000" />
      <sparseX alpha="701.86503553200589" i="55" sparseCutoff="1.0000000000000000" />
      <sparseX alpha="-237.95529338710895" i="56" sparseCutoff="1.0000000000000000" />
      <sparseX alpha="1208.7073136280155" i="57" sparseCutoff="1.0000000000000000" />
      <sparseX alpha="-1402.4676203188799" i="58" sparseCutoff="1.0000000000000000" />
      <sparseX alpha="-360.57460179992228" i="59" sparseCutoff="1.0000000000000000" />
      <sparseX alpha="-247.61880082015111" i="60" sparseCutoff="1.0000000000000000" />
      <sparseX alpha="-549.53430722522535" i="61" sparseCutoff="1.0000000000000000" />
      <sparseX alpha="317.27596848819041" i="62" sparseCutoff="1.0000000000000000" />
      <sparseX alpha="717.07011830270233" i="63" sparseCutoff="1.0000000000000000" />
      <sparseX alpha="1928.0835577621706" i="64" sparseCutoff="1.0000000000000000" />
      <sparseX alpha="1476.5202892532566" i="65" sparseCutoff="1.0000000000000000" />
      <sparseX alpha="1959.3740611972491" i="66" sparseCutoff="1.0000000000000000" />
      <sparseX alpha="-555.97796902457287" i="67" sparseCutoff="1.0000000000000000" />
      <sparseX alpha="-523.89279799904307" i="68" sparseCutoff="1.0000000000000000" />
      <sparseX alpha="732.84365487463401" i="69" sparseCutoff="1.0000000000000000" />
      <sparseX alpha="-487.77338938652372" i="70" sparseCutoff="1.0000000000000000" />
      <sparseX alpha="772.68359365894491" i="71" sparseCutoff="1.0000000000000000" />
      <sparseX alpha="-433.30025963788177" i="72" sparseCutoff="1.0000000000000000" />
      <sparseX alpha="-725.22683364692182" i="73" sparseCutoff="1.0000000000000000" />
      <sparseX alpha="-1053.0432179791790" i="74" sparseCutoff="1.0000000000000000" />
      <sparseX alpha="238.31144769345462" i="75" sparseCutoff="1.0000000000000000" />
      <sparseX alpha="-21.516094036223038" i="76" sparseCutoff="1.0000000000000000" />
      <sparseX alpha="1190.5834078494165" i="77" sparseCutoff="1.0000000000000000" />
      <sparseX alpha="-448.37581727890392" i="78" sparseCutoff="1.0000000000000000" />
      <sparseX alpha="-1063.8263502974103" i="79" sparseCutoff="1.0000000000000000" />
      <sparseX alpha="72.272567111118548" i="80" sparseCutoff="1.0000000000000000" />
      <sparseX alpha="513.50144326720090" i="81" sparseCutoff="1.0000000000000000" />
      <sparseX alpha="201.98733435159386" i="82" sparseCutoff="1.0000000000000000" />
      <sparseX alpha="932.04505256491939" i="83" sparseCutoff="1.0000000000000000" />
      <sparseX alpha="-1542.5577826783153" i="84" sparseCutoff="1.0000000000000000" />
      <sparseX alpha="235.11186645442109" i="85" sparseCutoff="1.0000000000000000" />
      <sparseX alpha="2395.6687477666292" i="86" sparseCutoff="1.0000000000000000" />
      <sparseX alpha="-347.07997180316426" i="87" sparseCutoff="1.0000000000000000" />
      <sparseX alpha="-630.69201619371256" i="88" sparseCutoff="1.0000000000000000" />
      <sparseX alpha="2.9233323816294168" i="89" sparseCutoff="1.0000000000000000" />
      <sparseX alpha="-30.135815031738094" i="90" sparseCutoff="1.0000000000000000" />
      <sparseX alpha="-161.51614354450766" i="91" sparseCutoff="1.0000000000000000" />
      <sparseX alpha="1524.4299079877510" i="92" sparseCutoff="1.0000000000000000" />
      <sparseX alpha="207.14029680575010" i="93" sparseCutoff="1.0000000000000000" />
      <sparseX alpha="766.25585396132010" i="94" sparseCutoff="1.0000000000000000" />
      <sparseX alpha="1184.2811420962375" i="95" sparseCutoff="1.0000000000000000" />
      <sparseX alpha="-1349.2770453539340" i="96" sparseCutoff="1.0000000000000000" />
      <sparseX alpha="-627.47557801534765" i="97" sparseCutoff="1.0000000000000000" />
      <sparseX alpha="704.78941341439634" i="98" sparseCutoff="1.0000000000000000" />
      <sparseX alpha="493.24599825590673" i="99" sparseCutoff="1.0000000000000000" />
      <sparseX alpha="789.26755344594642" i="100" sparseCutoff="1.0000000000000000" />
      <sparseX alpha="-698.44542124108591" i="101" sparseCutoff="1.0000000000000000" />
      <sparseX alpha="-2043.7266246368399" i="102" sparseCutoff="1.0000000000000000" />
      <sparseX alpha="360.25210823395480" i="103" sparseCutoff="1.0000000000000000" />
      <sparseX alpha="-143.32343505705367" i="104" sparseCutoff="1.0000000000000000" />
      <sparseX alpha="912.48863210330069" i="105" sparseCutoff="1.0000000000000000" />
      <sparseX alpha="-657.16091958160644" i="106" sparseCutoff="1.0000000000000000" />
      <sparseX alpha="906.43484230053002" i="107" sparseCutoff="1.0000000000000000" />
      <sparseX alpha="-14.995765705815302" i="108" sparseCutoff="1.0000000000000000" />
      <sparseX alpha="-377.26231663878633" i="109" sparseCutoff="1.0000000000000000" />
      <sparseX alpha="-970.14818654914598" i="110" sparseCutoff="1.0000000000000000" />
      <sparseX alpha="-2407.0099882214995" i="111" sparseCutoff="1.0000000000000000" />
      <sparseX alpha="-375.86101580336987" i="112" sparseCutoff="1.0000000000000000" />
      <sparseX alpha="357.28512064592269" i="113" sparseCutoff="1.0000000000000000" />
      <sparseX alpha="364.38378753113403" i="114" sparseCutoff="1.0000000000000000" />
      <sparseX alpha="-1271.3669437733377" i="115" sparseCutoff="1.0000000000000000" />
      <sparseX alpha="1885.0271538639045" i="116" sparseCutoff="1.0000000000000000" />
      <sparseX alpha="-571.24275200858085" i="117" sparseCutoff="1.0000000000000000" />
      <sparseX alpha="297.02693634661904" i="118" sparseCutoff="1.0000000000000000" />
      <sparseX alpha="-122.77075558788043" i="119" sparseCutoff="1.0000000000000000" />
      <sparseX alpha="460.45813465688968" i="120" sparseCutoff="1.0000000000000000" />
      <sparseX alpha="-422.99925685230079" i="121" sparseCutoff="1.0000000000000000" />
      <sparseX alpha="-815.92656353080338" i="122" sparseCutoff="1.0000000000000000" />
      <sparseX alpha="1480.4842872065897" i="123" sparseCutoff="1.0000000000000000" />
      <sparseX alpha="114.30758502678817" i="124" sparseCutoff="1.0000000000000000" />
      <sparseX alpha="-728.67601003112759" i="125" sparseCutoff="1.0000000000000000" />
      <sparseX alpha="29.100822508585974" i="126" sparseCutoff="1.0000000000000000" />
      <sparseX alpha="237.09672263694020" i="127" sparseCutoff="1.0000000000000000" />
      <sparseX alpha="-717.21654859966839" i="128" sparseCutoff="1.0000000000000000" />
      <sparseX alpha="955.77397451845718" i="129" sparseCutoff="1.0000000000000000" />
      <sparseX alpha="100.20923270698140" i="130" sparseCutoff="1.0000000000000000" />
      <sparseX alpha="1042.2866802580340" i="131" sparseCutoff="1.0000000000000000" />
      <sparseX alpha="-281.99502108361776" i="132" sparseCutoff="1.0000000000000000" />
      <sparseX alpha="-1619.5982099939988" i="133" sparseCutoff="1.0000000000000000" />
      <sparseX alpha="-699.50360527663952" i="134" sparseCutoff="1.0000000000000000" />
      <sparseX alpha="608.47493546518513" i="135" sparseCutoff="1.0000000000000000" />
      <sparseX alpha="-844.15325257326049" i="136" sparseCutoff="1.0000000000000000" />
      <sparseX alpha="124.74647187173973" i="137" sparseCutoff="1.0000000000000000" />
      <sparseX alpha="-543.39558724893334" i="138" sparseCutoff="1.0000000000000000" />
      <sparseX alpha="-268.16463981779538" i="139" sparseCutoff="1.0000000000000000" />
      <sparseX alpha="-1253.6650304935586" i="140" sparseCutoff="1.0000000000000000" />
      <sparseX alpha="540.29418314360009" i="141" sparseCutoff="1.0000000000000000" />
      <sparseX alpha="-448.50615793838784" i="142" sparseCutoff="1.0000000000000000" />
      <sparseX alpha="330.85320086326561" i="143" sparseCutoff="1.0000000000000000" />
      <sparseX alpha="-92.768203450970233" i="144" sparseCutoff="1.0000000000000000" />
      <sparseX alpha="-359.25044713897114" i="145" sparseCutoff="1.0000000000000000" />
      <sparseX alpha="-347.69207573931004" i="146" sparseCutoff="1.0000000000000000" />
      <sparseX alpha="-332.55747634542894" i="147" sparseCutoff="1.0000000000000000" />
      <sparseX alpha="449.02777317551539" i="148" sparseCutoff="1.0000000000000000" />
      <sparseX alpha="-725.46619446284410" i="149" sparseCutoff="1.0000000000000000" />
      <sparseX alpha="706.25795749007489" i="150" sparseCutoff="1.0000000000000000" />
      <sparseX alpha="-1013.0099972750997" i="151" sparseCutoff="1.0000000000000000" />
      <sparseX alpha="101.29816124238984" i="152" sparseCutoff="1.0000000000000000" />
      <sparseX alpha="236.74718023308444" i="153" sparseCutoff="1.0000000000000000" />
      <sparseX alpha="-1409.0990829712387" i="154" sparseCutoff="1.0000000000000000" />
      <sparseX alpha="-743.70660451216293" i="155" sparseCutoff="1.0000000000000000" />
      <sparseX alpha="-986.38749517956182" i="156" sparseCutoff="1.0000000000000000" />
      <sparseX alpha="1097.7944259077221" i="157" sparseCutoff="1.0000000000000000" />
      <sparseX alpha="-1124.4775189885531" i="158" sparseCutoff="1.0000000000000000" />
      <sparseX alpha="1810.1937629875661" i="159" sparseCutoff="1.0000000000000000" />
      <sparseX alpha="-471.63329740113238" i="160" sparseCutoff="1.0000000000000000" />
      <sparseX alpha="-463.62451044418293" i="161" sparseCutoff="1.0000000000000000" />
      <sparseX alpha="-787.74489593236115" i="162" sparseCutoff="1.0000000000000000" />
      <sparseX alpha="474.03330424936070" i="163" sparseCutoff="1.0000000000000000" />
      <sparseX alpha="-916.24996806086256" i="164" sparseCutoff="1.0000000000000000" />
      <sparseX alpha="1144.3491862742153" i="165" sparseCutoff="1.0000000000000000" />
      <sparseX alpha="-349.63744732479421" i="166" sparseCutoff="1.0000000000000000" />
      <sparseX alpha="-856.82632425626196" i="167" sparseCutoff="1.0000000000000000" />
      <sparseX alpha="-215.97501976623766" i="168" sparseCutoff="1.0000000000000000" />
      <sparseX alpha="1314.6772149155711" i="169" sparseCutoff="1.0000000000000000" />
      <sparseX alpha="-287.27403714857468" i="170" sparseCutoff="1.0000000000000000" />
      <sparseX alpha="228.55524866515145" i="171" sparseCutoff="1.0000000000000000" />
      <sparseX alpha="562.26814079959922" i="172" sparseCutoff="1.0000000000000000" />
      <sparseX alpha="918.01878952935408" i="173" sparseCutoff="1.0000000000000000" />
      <sparseX alpha="47.973463957831441" i="174" sparseCutoff="1.0000000000000000" />
      <sparseX alpha="724.74589958056652" i="175" sparseCutoff="1.0000000000000000" />
      <sparseX alpha="-495.31244093579619" i="176" sparseCutoff="1.0000000000000000" />
      <sparseX alpha="1191.0385102861417" i="177" sparseCutoff="1.0000000000000000" />
      <sparseX alpha="-397.24439026780908" i="178" sparseCutoff="1.0000000000000000" />
      <sparseX alpha="816.82524244020772" i="179" sparseCutoff="1.0000000000000000" />
      <sparseX alpha="-73.430010800189294" i="180" sparseCutoff="1.0000000000000000" />
      <sparseX alpha="-1372.3824282995295" i="181" sparseCutoff="1.0000000000000000" />
      <sparseX alpha="-1273.3268634694343" i="182" sparseCutoff="1.0000000000000000" />
      <sparseX alpha="367.38116227447370" i="183" sparseCutoff="1.0000000000000000" />
      <sparseX alpha="668.41850240126087" i="184" sparseCutoff="1.0000000000000000" />
      <sparseX alpha="1522.1570749953248" i="185" sparseCutoff="1.0000000000000000" />
      <sparseX alpha="-229.16997917299679" i="186" sparseCutoff="1.0000000000000000" />
      <sparseX alpha="-1239.7645889357436" i="187" sparseCutoff="1.0000000000000000" />
      <sparseX alpha="1331.4726418698795" i="188" sparseCutoff="1.0000000000000000" />
      <sparseX alpha="415.21970544726776" i="189" sparseCutoff="1.0000000000000000" />
      <sparseX alpha="-595.27910526221569" i="190" sparseCutoff="1.0000000000000000" />
      <sparseX alpha="122.72660490420584" i="191" sparseCutoff="1.0000000000000000" />
      <sparseX alpha="317.85936822453908" i="192" sparseCutoff="1.0000000000000000" />
      <sparseX alpha="901.19074927649694" i="193" sparseCutoff="1.0000000000000000" />
      <sparseX alpha="-1469.3891012882857" i="194" sparseCutoff="1.0000000000000000" />
      <sparseX alpha="-1052.0131016549190" i="195" sparseCutoff="1.0000000000000000" />
      <sparseX alpha="-1708.6983398499747" i="196" sparseCutoff="1.0000000000000000" />
      <sparseX alpha="-658.29744378248449" i="197" sparseCutoff="1.0000000000000000" />
      <sparseX alpha="45.974256306574560" i="198" sparseCutoff="1.0000000000000000" />
      <sparseX alpha="-1970.2312911644185" i="199" sparseCutoff="1.0000000000000000" />
      <sparseX alpha="895.39432616970271" i="200" sparseCutoff="1.0000000000000000" />
    </gpCoordinates>
  </gpSparse>
  <command_line> at_file=train.xyz gap={soap l_max=8 n_max=8 atom_sigma=0.5 zeta=4 cutoff=5.0 cutoff_transition_width=0.5 delta=1.0 f0=0.0 n_sparse=200 covariance_type=dot_product sparse_method=cur_points} sparse_jitter=1e-08 e0=-0.97 e0_offset=0.0 default_sigma={0.0005 0.1 0.05 0.01} energy_parameter_name=dft_energy force_parameter_name=dft_force gp_file=train.xml</command_line>
  <XYZ_data>
    54
    dft_energy=-581.6806102 dft_virial={0.0	0.0	0.0	0.0	0.0	0.0	0.0	0.0	0.0} Lattice="9.450121     0.0     0.0     0.0     9.450121     0.0     0.0     0.0     9.450121" Properties=species:S:1:pos:R:3:Z:I:1:dft_force:R:3
    Mo                9.428962        0.044340        0.111511      42        0.657488       -0.288644       -1.848937
    Mo                9.305005        0.035523        3.190058      42        2.097227       -0.912967       -0.294151
    Mo                9.442466        0.007078        6.315336      42        0.655631       -0.140801       -0.182874
    Mo                9.383469        3.180079        0.026753      42        1.269306        0.019349       -0.374758
    Mo                9.426307        3.142014        3.152003      42        0.131673       -0.519221        0.008581
    Mo                0.009970        3.164335        6.414657      42        0.098491        0.326949       -1.873843
    Mo                9.409703        6.368597        9.387552      42        0.841835       -1.077416        0.560288
    Mo                9.366960        6.153626        3.079558      42        1.121970        2.036998        0.520751
    Mo                9.416148        6.339425        6.324739      42        0.453147       -0.589087       -1.533566
    Mo                3.053882        9.436286        0.117503      42        1.262180       -0.077548       -1.908181
    Mo                3.111226        9.442211        3.180618      42        0.356548       -0.126183       -0.184839
    Mo                3.113919        0.055189        6.294867      42        0.317995       -0.838506        0.237550
    Mo                3.116782        3.147533        0.081044      42        0.654875       -0.569925       -1.013761
    Mo                3.145369        3.114032        3.248413      42       -0.023025        0.264584       -1.201955
    Mo                3.074616        3.139652        6.333698      42        1.216820        0.593597       -0.176235
    Mo                3.151559        6.280371        0.014515      42        0.119352        0.006201       -0.667493
    Mo                3.138650        6.343602        3.135352      42        0.130386       -0.855220       -0.089636
    Mo                3.029794        6.366565        6.278074      42        1.277276       -0.811939       -0.041749
    Mo                6.281486        9.413549        0.128437      42        0.375681        0.731196       -2.279358
    Mo                6.290936        0.063921        3.172784      42       -0.087186       -0.678837        0.275611
    Mo                6.237845        0.058562        6.393593      42        0.835877       -0.746608       -0.655327
    Mo                6.304506        3.157654        0.134220      42       -0.108162       -0.329389       -1.584501
    Mo                6.216979        3.181638        3.259394      42        1.192558       -0.364105       -0.992062
    Mo                6.271261        3.223172        6.415215      42        0.485391       -1.029230       -1.144320
    Mo                6.288025        6.318048        0.121132      42        0.564743       -0.188544       -2.496612
    Mo                6.231363        6.349338        3.075627      42        0.823052       -0.245878        1.447792
    Mo                6.209193        6.245084        6.311991      42        0.978465        1.386364       -0.434546
    Mo                1.614100        1.479180        1.589378      42       -0.695945        1.064342        0.318238
    Mo                1.559799        1.586297        4.732025      42        0.227712       -0.473011       -0.210974
    Mo                1.621905        1.578161        7.818832      42       -0.292299       -0.161676        1.338390
    Mo                1.640692        4.610232        1.539481      42       -0.900489        0.923593        0.392664
    Mo                1.548176        4.651265        4.640661      42        0.265142        1.052269        1.000301
    Mo                1.671802        4.728519        7.881798      42       -0.923776        0.039215       -0.084014
    Mo                1.623597        7.761101        1.479889      42       -0.574058        0.730100        1.288280
    Mo                1.616131        7.846275        4.587117      42       -1.091549        0.186948        1.111962
    Mo                1.556907        7.874351        7.857502      42        0.732754        0.305402       -0.218679
    Mo                4.728670        1.502749        1.576516      42        0.048107        0.902743        0.197294
    Mo                4.771404        1.580004        4.678282      42       -0.519066        0.155246        1.062196
    Mo                4.728623        1.568758        7.816913      42        0.099763        0.099377        1.224061
    Mo                4.744859        4.696096        1.503543      42       -0.413313        0.101140        1.435374
    Mo                4.719995        4.743044        4.684444      42       -0.379464        0.145885        0.550122
    Mo                4.846891        4.721082        7.888885      42       -1.554327       -0.123460        0.026311
    Mo                4.810735        7.867207        1.502106      42       -1.290135        0.120999        1.481186
    Mo                4.764817        7.944358        4.737298      42       -0.586978       -0.652497       -0.372607
    Mo                4.723189        7.799260        7.855848      42        0.034327        1.046804        0.238484
    Mo                7.928869        1.610036        1.500386      42       -1.005932        0.038763        1.384735
    Mo                7.967151        1.486551        4.768021      42       -1.647402        1.787122       -0.426297
    Mo                8.021754        1.610660        7.796709      42       -2.063753       -0.289571        1.594913
    Mo                7.873293        4.764931        1.524314      42       -0.107750       -0.585166        0.204798
    Mo                7.907918        4.683565        4.607586      42       -0.791240        0.393785        1.379749
    Mo                7.938943        4.800274        7.772753      42       -0.579727       -0.700479        1.328624
    Mo                7.968115        7.926280        1.500386      42       -1.235736       -0.630538        1.246887
    Mo                7.854194        7.912426        4.751615      42       -0.032262       -0.983861       -0.759885
    Mo                8.019817        7.873983        7.786909      42       -2.422194        0.531337        1.196015
    54
    dft_energy=-582.7571641 dft_virial={0.0	0.0	0.0	0.0	0.0	0.0	0.0	0.0	0.0} Lattice="9.450121     0.0     0.0     0.0     9.450121     0.0     0.0     0.0     9.450121" Properties=species:S:1:pos:R:3:Z:I:1:dft_force:R:3
    Mo                9.422508        0.025837        0.005755      42        0.143987       -0.266483       -0.348331
    Mo                9.398429        9.448354        3.164675      42        0.611049       -0.010179        0.080458
    Mo                9.444130        0.056209        6.313040      42       -0.150224       -0.854299        0.144099
    Mo                9.441899        3.212172        0.099841      42       -0.084327       -0.806492       -0.921532
    Mo                9.408021        3.158126        3.184908      42        0.769574       -0.312923       -0.143450
    Mo                9.397871        3.166584        6.341343      42        0.064082        0.163344       -0.386612
    Mo                9.383214        6.305329        9.446851      42        1.337820       -0.049071        0.260324
    Mo                9.411064        6.323719        3.107342      42        0.498892       -0.326144        1.096538
    Mo                9.439405        6.297069        6.378028      42        0.420727       -0.143147       -1.139717
    Mo                3.064419        0.079041        0.085268      42        1.119100       -0.384996       -1.039330
    Mo                3.184719        0.027821        3.130419      42       -0.521387        0.274310        0.882353
    Mo                3.094697        9.396265        6.391164      42        0.877962        0.729358       -0.912420
    Mo                3.062189        3.203071        9.344970      42        1.216457       -0.407994        0.588320
    Mo                3.247770        3.221338        3.073709      42       -1.165272       -0.738855        0.716452
    Mo                3.028783        3.200709        6.205403      42        1.616946       -0.874290        0.943795
    Mo                3.125694        6.446513        0.041184      42        0.465355       -1.629262       -0.669065
    Mo                3.142968        6.418418        3.086958      42        0.330693       -1.478631        0.909954
    Mo                3.126771        6.322500        6.223973      42        0.679126       -0.358296        1.043594
    Mo                6.308419        9.354977        9.337287      42       -0.349401        0.931660        0.905237
    Mo                6.286239        9.429142        3.094962      42        0.303017        0.262014        0.571231
    Mo                6.313371        0.066104        6.269040      42       -0.320406       -0.824567       -0.133944
    Mo                6.262576        3.099252        0.088406      42        0.244841        0.189281       -2.031399
    Mo                6.301048        3.113673        3.092354      42        0.226725        0.579284        0.669733
    Mo                6.238526        3.186590        6.198221      42        0.553662       -0.441731        1.566104
    Mo                6.350784        6.254175        0.094189      42       -0.945669        0.225875       -1.352615
    Mo                6.277810        6.400822        3.155131      42        0.324863       -1.620891        0.188283
    Mo                6.325524        6.293176        6.304091      42       -0.433471       -0.050319        0.244314
    Mo                1.620337        1.559242        1.566754      42       -0.772755        0.445234        0.617498
    Mo                1.543885        1.502938        4.813353      42        0.277410        0.735488       -1.577838
    Mo                1.500972        1.602381        7.840321      42        0.781282       -0.230948        0.865331
    Mo                1.647657        4.716451        1.630089      42       -1.056891        0.299112       -0.556256
    Mo                1.633907        4.677281        4.732970      42       -0.853494        0.806862       -0.488182
    Mo                1.633624        4.730731        7.878443      42       -0.852056        0.374843        0.195411
    Mo                1.552560        7.872934        1.651484      42       -0.002623        0.371551       -0.748417
    Mo                1.666104        7.851775        4.735673      42       -1.286157        0.183940        0.179085
    Mo                1.617067        7.851661        7.964931      42       -0.870464        0.514899       -0.766302
    Mo                4.789964        1.601673        1.611331      42       -0.999214       -0.798128       -1.049675
    Mo                4.719750        1.556274        4.700055      42       -0.235416       -0.159001        0.130466
    Mo                4.747363        1.478717        7.789612      42       -0.702133        1.383707        1.125214
    Mo                4.709988        4.694584        1.475032      42        0.351911        0.725521        1.411376
    Mo                4.811066        4.662803        4.748450      42       -1.039902        1.128294       -0.952604
    Mo                4.755660        4.793886        7.910781      42       -0.185655       -0.917738       -0.650827
    Mo                4.750358        7.885984        1.588877      42       -0.104136        0.261452       -0.478585
    Mo                4.785201        7.830966        4.730986      42       -0.433154        0.644426        0.050277
    Mo                4.785881        7.856736        7.887364      42       -0.686296       -0.092826       -0.240814
    Mo                7.837382        1.440132        1.499838      42        0.753194        1.296396        0.934862
    Mo                7.860837        1.576082        4.692174      42        0.066866       -0.114238       -0.024737
    Mo                7.865477        1.600000        7.847607      42       -0.066025       -0.287247        0.249895
    Mo                7.881373        4.691853        1.596107      42       -0.022820       -0.050259        0.176504
    Mo                7.878056        4.711679        4.681562      42        0.320637        0.258648        0.450940
    Mo                7.918351        4.673227        7.948516      42       -0.579075        0.268389       -0.745473
    Mo                7.909024        7.814437        1.542326      42       -0.375316        0.622794        0.572807
    Mo                7.896587        7.883130        4.843877      42        0.334380       -0.148881       -1.647173
    Mo                7.871535        7.803683        7.811092      42        0.403181        0.701153        1.234843
    54
    dft_energy=-582.92646384 dft_virial={0.0	0.0	0.0	0.0	0.0	0.0	0.0	0.0	0.0} Lattice="9.450121     0.0     0.0     0.0     9.450121     0.0     0.0     0.0     9.450121" Properties=species:S:1:pos:R:3:Z:I:1:dft_force:R:3
    Mo                0.009942        0.071660        9.427904      42       -0.325221       -0.772000        0.235526
    Mo                9.401169        0.012654        3.210726      42        0.434129       -0.711872       -0.412959
    Mo                9.413823        0.014988        6.339519      42        0.443854        0.094868       -0.233373
    Mo                9.386550        3.164619        0.128909      42        0.790087       -0.257788       -1.934163
    Mo                9.370438        3.111462        3.128330      42        0.912139        0.097774        0.922749
    Mo                9.396681        3.140030        6.259637      42        0.374394       -0.096864        0.567578
    Mo                0.041146        6.396692        9.386985      42       -0.271571       -1.220549        0.502067
    Mo                0.024315        6.315053        3.133225      42       -0.027558       -0.330034        0.177268
    Mo                9.343439        6.354904        6.270080      42        1.393741       -1.182211        0.624266
    Mo                3.122774        0.020271        0.048763      42        0.260272       -0.430245       -1.153374
    Mo                3.113068        0.008864        3.106775      42        0.432508       -0.347423        0.863985
    Mo                3.178681        0.069128        6.242835      42       -0.290364       -0.434808        0.897505
    Mo                3.103873        3.131581        9.351471      42        0.288054        0.200088        1.295429
    Mo                3.119154        3.195190        3.169589      42        0.335538       -0.693631       -0.062644
    Mo                3.102210        3.256323        6.330381      42        0.326868       -0.917842       -0.479062
    Mo                3.177093        6.359695        9.404118      42       -0.023280       -1.014146        0.287035
    Mo                3.160763        6.348468        3.173568      42        0.039287       -0.703330       -0.467230
    Mo                3.130428        6.373568        6.234150      42        0.006053       -0.826689        1.022329
    Mo                6.247522        9.430966        0.058269      42        0.874802        0.262493       -1.032610
    Mo                6.243345        9.441673        3.162502      42        0.476076        0.294035       -0.118084
    Mo                6.268322        0.092035        6.278245      42        0.372251       -0.723916        0.664436
    Mo                6.261319        3.144868        0.098603      42        0.315606       -0.143311       -1.380843
    Mo                6.291541        3.265206        3.069012      42       -0.168514       -1.319038        1.283639
    Mo                6.248099        3.252051        6.296001      42        0.678050       -1.449142       -0.323795
    Mo                6.357219        6.296285        9.407662      42        0.094155       -0.233201        0.364968
    Mo                6.303760        6.385352        3.096134      42        0.496557       -0.835928        0.655985
    Mo                6.235917        6.329133        6.318039      42        1.264807       -0.191932       -0.558694
    Mo                1.542487        1.437581        1.632650      42        0.274760        1.315762       -0.712929
    Mo                1.591467        1.500774        4.701823      42       -0.384970        0.961514        0.419431
    Mo                1.572084        1.527329        7.842051      42        0.028243        0.721658        0.346131
    Mo                1.600406        4.555809        1.627037      42       -0.056710        1.704611       -0.373449
    Mo                1.554838        4.677517        4.796399      42        0.279136        0.489140       -0.804376
    Mo                1.584190        4.763315        7.942486      42       -0.112592       -0.519741       -0.669493
    Mo                1.594084        7.802766        1.580863      42        0.458951        0.265966       -0.036808
    Mo                1.582810        7.839896        4.767236      42        0.000895        0.385010       -0.701746
    Mo                1.605339        7.851132        7.846265      42        0.088141        0.690198        0.270259
    Mo                4.676411        1.507824        1.564808      42        0.309084        0.611777        0.400947
    Mo                4.736486        1.632395        4.732450      42       -0.379983       -0.234261       -0.433485
    Mo                4.781648        1.564288        7.873879      42       -1.113435        0.070880        0.184898
    Mo                4.744102        4.694215        1.569769      42       -0.468441        0.485099       -0.055156
    Mo                4.794869        4.732706        4.749621      42       -1.126649        0.545439       -0.657133
    Mo                4.838982        4.689547        7.887024      42       -1.672513        0.524255        0.181248
    Mo                4.818239        7.790529        1.503930      42       -1.087322        0.830034        0.849659
    Mo                4.757493        7.886882        4.774938      42       -0.313121        0.114580       -1.350859
    Mo                4.820280        7.808493        7.812925      42       -1.314196        1.147112        0.937952
    Mo                7.873321        1.523634        1.587365      42       -0.523238        0.343348        0.281580
    Mo                7.832912        1.470807        4.745794      42        0.200414        1.459797       -0.425246
    Mo                7.825107        1.628502        7.899498      42        0.508313       -0.810601        0.059687
    Mo                7.946692        4.726752        1.557115      42       -0.739763        0.444895       -0.142863
    Mo                7.906037        4.709751        4.655130      42       -0.446898        0.191802        0.359365
    Mo                7.876109        4.600829        7.795764      42        0.506348        1.841787        1.100812
    Mo                7.994387        7.885086        1.575751      42       -1.197997       -0.171018        0.156599
    Mo                7.927820        7.835350        4.844586      42       -1.055058        0.519368       -1.756738
    Mo                7.897268        7.901530        7.879747      42       -0.164120       -0.041771        0.363784
    54
    dft_energy=-582.71802389 dft_virial={0.0	0.0	0.0	0.0	0.0	0.0	0.0	0.0	0.0} Lattice="9.450121     0.0     0.0     0.0     9.450121     0.0     0.0     0.0     9.450121" Properties=species:S:1:pos:R:3:Z:I:1:dft_force:R:3
    Mo                0.014610        0.042242        9.389952      42       -0.855962       -0.051217        0.497783
    Mo                9.433375        0.048829        3.082715      42        0.081426       -0.600826        0.654688
    Mo                9.444716        9.399053        6.330116      42        0.110617        0.518304       -0.871171
    Mo                0.013703        3.251050        0.004810      42       -0.238728       -0.879530       -0.202677
    Mo                9.375947        3.143195        3.125590      42        0.729459        0.059334        0.242341
    Mo                9.442107        3.178851        6.249318      42        0.575995       -0.687175        0.397521
    Mo                9.417820        6.353411        0.045975      42       -0.025264       -0.413661       -0.637718
    Mo                9.343873        6.298610        3.200085      42        0.929868        0.577564       -0.902597
    Mo                0.015838        6.219304        6.227497      42       -0.187688        0.683166        1.038114
    Mo                3.064655        0.032669        0.090372      42        0.685152       -0.378424       -1.192162
    Mo                3.196740        9.446105        3.149064      42       -0.672601        0.003448        0.352959
    Mo                3.106311        9.433640        6.340899      42        0.112342        0.184101       -0.110240
    Mo                3.144509        3.142515        9.360808      42        0.063119        0.102797        1.276846
    Mo                3.153212        3.084831        3.103836      42       -0.386370        0.687883        0.160972
    Mo                3.173615        3.187828        6.260894      42       -0.139154       -0.520595        0.259245
    Mo                3.190985        6.360801        0.075214      42       -1.138158       -0.443515       -0.444554
    Mo                3.151918        6.298439        3.204196      42       -0.106733       -0.069049       -1.013099
    Mo                3.094886        6.312879        6.256812      42        0.494320       -0.340951        1.078516
    Mo                6.166242        9.379481        9.360165      42        2.083180        0.496876        0.500678
    Mo                6.307625        0.076622        3.115733      42        0.726940       -1.123320       -0.009592
    Mo                6.263928        0.041117        6.222461      42        0.921263       -1.148314        1.256622
    Mo                6.235842        3.063323        0.042818      42        1.206189        0.870061       -0.529684
    Mo                6.168604        3.131042        3.205679      42        2.065844        0.379285       -0.548827
    Mo                6.337837        3.103183        6.336835      42       -0.242114        0.737958       -0.039636
    Mo                6.181154        6.233045        0.026904      42        2.035412        0.440783       -0.421757
    Mo                6.210251        6.304535        3.197817      42        1.220489        0.389820       -0.090107
    Mo                6.296294        6.315317        6.362256      42        0.041056       -0.276134       -0.364762
    Mo                1.570317        1.601843        1.530485      42        0.476853        0.236808        0.614446
    Mo                1.640664        1.540370        4.743630      42       -0.362858        0.301774       -0.569557
    Mo                1.565441        1.621130        7.853419      42        0.511267       -0.322521       -0.089317
    Mo                1.533348        4.810338        1.595691      42        1.147855       -0.745469        0.200890
    Mo                1.591570        4.707937        4.643742      42        0.181229       -0.302426        1.040092
    Mo                1.642431        4.720524        7.999990      42       -0.398809        0.600266       -1.594852
    Mo                1.542042        7.932706        1.583481      42        0.400999       -0.412893        0.083406
    Mo                1.634474        7.799034        4.637524      42       -0.815024        1.128087        0.948656
    Mo                1.475712        7.870288        7.899904      42        1.651403       -0.235041       -0.473983
    Mo                4.786524        1.524834        1.580826      42       -0.992659        0.772977       -0.097667
    Mo                4.847175        1.548034        4.764524      42       -1.928434        0.633245       -0.459602
    Mo                4.798800        1.493658        7.863861      42       -1.465901        0.861853       -0.030802
    Mo                4.806776        4.733443        1.566395      42       -1.489299       -0.381126        0.674793
    Mo                4.795218        4.735569        4.763267      42       -1.163300       -0.113414        0.031354
    Mo                4.734511        4.680059        7.928056      42        0.056006        0.207461       -0.827306
    Mo                4.816226        7.916111        1.608486      42       -1.649559       -0.577562        0.149341
    Mo                4.700084        7.950065        4.788717      42        0.583891       -1.036169       -0.671546
    Mo                4.691579        7.835228        7.891418      42       -0.244162        0.078849       -0.194756
    Mo                7.958656        1.642138        1.458881      42       -1.092640       -0.674390        1.192469
    Mo                7.909534        1.552844        4.754611      42        0.240131        0.157169       -0.780312
    Mo                7.911991        1.570364        7.863153      42       -0.128842        0.040751       -0.054477
    Mo                7.937327        4.768418        1.680893      42       -1.367660       -0.424967       -1.453465
    Mo                7.853372        4.701813        4.701898      42        0.131751       -0.040073        0.522403
    Mo                7.956047        4.662898        7.839641      42       -0.963364        1.000527        0.610885
    Mo                7.834330        7.890728        1.441465      42        0.313079        0.210125        1.622820
    Mo                7.932630        7.852011        4.777962      42       -0.823997        0.317010       -0.887837
    Mo                7.915062        7.883896        7.847371      42       -0.897854       -0.479524        0.156222
    54
    dft_energy=-582.41805119 dft_virial={0.0	0.0	0.0	0.0	0.0	0.0	0.0	0.0	0.0} Lattice="9.450121     0.0     0.0     0.0     9.450121     0.0     0.0     0.0     9.450121" Properties=species:S:1:pos:R:3:Z:I:1:dft_force:R:3
    Mo                9.440879        0.050445        0.035655      42        0.491699       -0.759742       -0.609470
    Mo                9.374548        0.088869        3.179862      42        0.684023       -1.364481        0.057980
    Mo                9.382364        0.001937        6.304790      42        1.256684       -0.065158        0.035860
    Mo                9.388440        3.186137        0.038037      42        0.727190       -0.799782       -0.735297
    Mo                9.395433        3.183642        3.124701      42        0.517913       -0.600052        0.448933
    Mo                9.362112        3.244652        6.215326      42        1.083618       -1.300111        1.254798
    Mo                9.380852        6.323955        0.046816      42        1.481989       -0.666983       -0.643751
    Mo                0.019496        6.295548        3.143394      42       -0.073181        0.229980        0.286013
    Mo                0.045587        6.316640        6.312123      42       -0.415559       -0.276229        0.050290
    Mo                3.107209        0.092384        0.041392      42        0.636041       -0.892017       -0.735707
    Mo                3.091002        9.442939        3.168975      42        0.539770        0.128090       -0.351113
    Mo                3.098014        9.434065        6.252777      42        0.499679        0.312453        1.117932
    Mo                3.136911        3.263741        9.443241      42       -0.514707       -1.095748        0.165243
    Mo                3.092741        3.143791        3.135739      42        1.199299       -0.322424        0.302582
    Mo                3.088413        3.235495        6.340048      42        0.321173       -1.591930       -0.638025
    Mo                3.116631        6.451957        9.439131      42        0.370210       -1.783629        0.475534
    Mo                3.214978        6.352400        3.199253      42       -0.463540       -0.703397       -1.029448
    Mo                3.129067        6.321989        6.219767      42        0.588511       -0.284132        1.183741
    Mo                6.327215        0.033170        9.431684      42       -0.264915       -0.691367       -0.254583
    Mo                6.201207        0.087801        3.165413      42        1.435367       -1.335192       -0.707634
    Mo                6.279095        0.052826        6.226042      42        0.084934       -0.730317        1.431220
    Mo                6.149827        3.161547        9.407123      42        2.258250       -0.460020        0.165433
    Mo                6.291125        3.132224        3.169901      42        0.013450        0.215825       -0.230015
    Mo                6.195102        3.170345        6.331118      42        1.055663        0.095333       -0.279642
    Mo                6.253164        6.318502        9.393090      42        0.810090       -0.391855        0.644157
    Mo                6.259864        6.313966        3.155131      42        1.182822       -0.231783       -0.293032
    Mo                6.246908        6.420856        6.326847      42        1.104428       -1.781987       -0.479109
    Mo                1.629295        1.556085        1.605150      42       -0.802527        0.528154        0.093828
    Mo                1.618116        1.507417        4.748336      42       -0.860059        0.851258        0.069578
    Mo                1.539633        1.535484        7.977027      42        0.195753        0.584431       -1.221902
    Mo                1.655529        4.666215        1.634710      42       -0.628348        1.286255       -0.940572
    Mo                1.646343        4.667538        4.658106      42       -0.846521        0.610841        0.675045
    Mo                1.603383        4.672197        7.818595      42       -0.620890        0.961417        0.845544
    Mo                1.563617        7.919390        1.615527      42        0.458427       -0.646352        0.007465
    Mo                1.619685        7.804108        4.768059      42       -0.672931        0.756438       -0.754921
    Mo                1.651494        7.813861        7.914779      42       -0.739497        0.884176       -0.418297
    Mo                4.735947        1.543942        1.494404      42       -0.143955        0.232222        1.027067
    Mo                4.761141        1.486032        4.720628      42       -1.035715        1.714584       -0.155753
    Mo                4.707228        1.566584        7.854043      42       -0.388972       -0.237191       -0.093760
    Mo                4.832622        4.649393        1.524012      42       -1.273868        1.088063        0.933411
    Mo                4.745029        4.674871        4.733216      42        0.005539        0.646828       -0.316856
    Mo                4.689150        4.704932        7.868634      42        0.290451        0.753469       -0.205042
    Mo                4.784369        7.824785        1.589009      42       -0.467056        0.769596       -0.093672
    Mo                4.798469        7.926147        4.729341      42       -1.014306       -0.944687       -0.254317
    Mo                4.814534        7.819701        7.863380      42       -1.114731        1.375212        0.208555
    Mo                7.934303        1.461348        1.550406      42       -1.166233        1.678654        0.442932
    Mo                7.864986        1.579474        4.814430      42        0.084846        0.340289       -1.745102
    Mo                7.877129        1.468795        7.790897      42       -0.320221        1.492241        1.286850
    Mo                7.922603        4.638129        1.585050      42       -0.749166        0.847833        0.277266
    Mo                7.935144        4.763126        4.784899      42       -1.080248       -0.217140       -0.724335
    Mo                7.922178        4.655404        7.941957      42       -0.946652        0.774814       -0.789478
    Mo                7.976998        7.816932        1.466252      42       -1.638391        0.423755        1.674924
    Mo                7.879180        7.837240        4.733594      42        0.184918        0.575881       -0.641591
    Mo                8.002287        7.846993        7.846521      42       -1.320554        0.015613        0.180239
    54
    dft_energy=-582.45661226 dft_virial={0.0	0.0	0.0	0.0	0.0	0.0	0.0	0.0	0.0} Lattice="9.450121     0.0     0.0     0.0     9.450121     0.0     0.0     0.0     9.450121" Properties=species:S:1:pos:R:3:Z:I:1:dft_force:R:3
    Mo                9.403693        9.424190        9.345631      42        0.143351        0.410812        1.590067
    Mo                9.429888        0.051522        3.115015      42        0.377910       -0.546324        0.059122
    Mo                0.030760        0.004612        6.236740      42       -0.758257        0.103580        0.405862
    Mo                9.363378        3.175959        9.365429      42        1.267422       -0.455473        0.922576
    Mo                9.387287        3.155821        3.131600      42        1.114725        0.390587       -0.048649
    Mo                0.032754        3.241713        6.182865      42       -0.209890       -1.350740        1.760429
    Mo                9.407492        6.310933        0.026366      42        0.340729       -0.401359        0.342663
    Mo                9.397824        6.335286        3.172500      42        0.976977       -0.943160        0.125564
    Mo                9.426968        6.301520        6.330135      42        0.361624        0.166262       -0.056796
    Mo                3.089452        9.410251        9.385586      42        0.444382        0.420059        0.985634
    Mo                3.089103        0.075308        3.029624      42        1.030996       -0.382091        1.512619
    Mo                3.079010        0.026196        6.249904      42        1.025888       -0.334784        0.266932
    Mo                3.137015        3.183651        9.416564      42        0.189262       -0.633059        0.736631
    Mo                3.129710        3.211312        3.168512      42        0.428745       -0.625535       -0.423862
    Mo                3.090908        3.120591        6.277318      42        1.008225        0.496781        0.672204
    Mo                3.054364        6.369013        9.418321      42        1.500455       -1.068326        0.464645
    Mo                3.198063        6.385636        3.157408      42       -0.297242       -1.001990       -0.244135
    Mo                3.058513        6.390966        6.114011      42        1.215817       -0.866034        2.586817
    Mo                6.191011        0.038774        0.087064      42        1.758247       -0.351846       -1.116077
    Mo                6.293289        9.435842        3.128642      42        0.371294        0.599293        0.530728
    Mo                6.229387        9.365920        6.235492      42        1.366534        0.980732        1.140065
    Mo                6.259552        3.179380        9.401056      42        0.347867       -0.169276        0.298134
    Mo                6.254430        3.156511        3.143602      42        0.486299       -0.233999        0.051550
    Mo                6.283168        3.123983        6.293365      42        0.181043       -0.296930        0.173637
    Mo                6.237751        6.379814        9.411886      42        0.631878       -1.193065        0.492708
    Mo                6.254251        6.314372        3.113361      42        0.963401       -0.768573        0.799872
    Mo                6.232619        6.260365        6.281902      42        0.599463        0.158226        0.386075
    Mo                1.623852        1.549971        1.577017      42       -0.731380        0.514499       -0.287937
    Mo                1.631970        1.643348        4.755216      42       -0.746321       -0.678084       -0.687753
    Mo                1.593498        1.479596        7.937572      42       -0.473974        1.282292       -0.998583
    Mo                1.660074        4.699895        1.669742      42       -1.114852        0.370789       -0.770970
    Mo                1.620923        4.767973        4.764760      42       -0.583916       -0.046697       -0.531607
    Mo                1.655321        4.685020        8.009932      42       -1.239067        0.530621       -1.671969
    Mo                1.663873        7.797474        1.669383      42       -1.395225        1.096933       -1.208791
    Mo                1.591174        7.934066        4.726043      42       -0.237704       -0.094435       -0.348162
    Mo                1.559261        7.850886        7.907389      42        0.050797       -0.118784       -0.580391
    Mo                4.746115        1.563437        1.547259      42       -0.170421        0.533048        0.486046
    Mo                4.760205        1.561623        4.766547      42       -0.316991       -0.116800       -0.677214
    Mo                4.712237        1.461886        7.918757      42        0.144810        1.221081       -0.817000
    Mo                4.770223        4.733736        1.582754      42       -0.532119       -0.003942       -0.440031
    Mo                4.744566        4.655026        4.711471      42       -0.153822        0.909523        0.197862
    Mo                4.703174        4.677971        7.827271      42        0.269429        0.551748        0.336421
    Mo                4.798082        7.872811        1.673021      42       -1.028314        0.252860       -1.156052
    Mo                4.832811        7.883792        4.757078      42       -1.494340       -0.155948       -0.395096
    Mo                4.741655        7.879416        7.974116      42       -0.474497       -0.395073       -1.332250
    Mo                7.974589        1.645257        1.612143      42       -1.417197       -1.140066       -1.033372
    Mo                7.933528        1.531496        4.684661      42       -0.669719        0.181228        0.458003
    Mo                7.908882        1.551370        7.785236      42       -0.608462        0.138235        0.724108
    Mo                7.876203        4.693733        1.648101      42       -0.108469        0.489017       -0.774535
    Mo                7.906746        4.677356        4.833170      42       -0.709332        0.587807       -1.324768
    Mo                7.949395        4.743271        7.910167      42       -1.185908       -0.131224       -0.166183
    Mo                7.903079        7.801727        1.671745      42       -0.073584        1.198666       -1.407028
    Mo                7.940823        7.789338        4.722660      42       -0.750732        0.927460        0.507974
    Mo                7.934681        7.867311        7.915450      42       -1.115837       -0.008522       -0.515738
    54
    dft_energy=-582.32287505 dft_virial={0.0	0.0	0.0	0.0	0.0	0.0	0.0	0.0	0.0} Lattice="9.450121     0.0     0.0     0.0     9.450121     0.0     0.0     0.0     9.450121" Properties=species:S:1:pos:R:3:Z:I:1:dft_force:R:3
    Mo                9.400187        0.036657        9.283090      42        0.914337       -0.628820        2.726109
    Mo                9.448023        0.021886        3.133396      42        0.136199        0.021986        0.226419
    Mo                9.441172        0.082622        6.303259      42        0.029965       -1.327922       -0.815148
    Mo                0.000265        3.089112        9.338543      42        0.468784        0.288860        1.629161
    Mo                9.418331        3.184955        3.120789      42        0.438298       -0.443513        0.035558
    Mo                9.437940        3.149971        6.219569      42        0.109481       -0.233974        1.009557
    Mo                9.357207        6.305329        9.385123      42        1.324428        0.502096        0.268081
    Mo                9.416431        6.377802        3.049129      42        0.253857       -0.631400        1.183034
    Mo                9.356555        6.249091        6.204638      42        1.112102        1.064066        1.418278
    Mo                3.139179        0.018532        9.450026      42        0.209854       -0.166941        0.381148
    Mo                3.159185        9.444271        3.162653      42        0.040269       -0.073743       -0.065008
    Mo                3.108844        0.022784        6.267575      42        1.215626       -0.831240        0.593378
    Mo                3.170147        3.211331        9.341161      42        0.091360       -0.923797        1.443666
    Mo                3.068851        3.132035        3.095727      42        1.355518        0.338381        0.745771
    Mo                3.065260        3.133877        6.276506      42        1.544814       -0.057125        0.405178
    Mo                3.071299        6.347344        9.369918      42        0.682117       -0.628812        0.522892
    Mo                3.027460        6.315006        3.020164      42        1.066897       -0.359800        1.768750
    Mo                3.068303        6.245434        6.247532      42        1.068268        0.694253        0.512293
    Mo                6.249800        0.031620        0.052590      42        0.596507       -0.171044       -0.545697
    Mo                6.260100        9.365646        3.066687      42        0.748664        0.947895        1.447020
    Mo                6.255942        0.050643        6.261575      42        0.593254       -0.910982        0.718236
    Mo                6.327366        3.200983        0.148679      42       -0.002385       -0.484848       -1.415146
    Mo                6.312038        3.153950        3.172415      42       -0.238288        0.039132        0.206963
    Mo                6.296181        3.100244        6.289339      42        0.173241        0.805173        0.757789
    Mo                6.247947        6.307370        9.385473      42        0.241129        0.221322        0.635562
    Mo                6.242514        6.275816        3.108126      42        0.549258        0.168779        0.678196
    Mo                6.284661        6.333783        6.283877      42        0.000675       -0.468907        0.403248
    Mo                1.645172        1.564864        1.602863      42       -0.736144       -0.267663       -0.374048
    Mo                1.674987        1.588036        4.793678      42       -1.438596       -0.045153       -1.210073
    Mo                1.643622        1.440822        7.896729      42       -0.406674        2.152638       -0.355430
    Mo                1.568900        4.627412        1.611217      42       -0.346789        1.131262       -0.701659
    Mo                1.562266        4.737554        4.831195      42        0.060628       -0.104947       -1.805332
    Mo                1.578841        4.683385        7.932261      42        0.129521        0.252070       -0.824794
    Mo                1.587564        7.847390        1.566084      42       -0.468411        0.637807       -0.410251
    Mo                1.591032        7.922188        4.799698      42       -0.270131       -0.565712       -1.292188
    Mo                1.619033        7.853372        7.838233      42       -1.005992       -0.173342        0.156497
    Mo                4.788773        1.606719        1.631346      42       -0.735786       -0.114660       -0.218981
    Mo                4.804829        1.516111        4.779484      42       -1.079051        0.679065       -0.870959
    Mo                4.797940        1.543639        7.947325      42       -0.636082        0.631246       -0.502695
    Mo                4.682393        4.802665        1.618844      42        0.297120       -1.056094       -0.532549
    Mo                4.739604        4.657190        4.792582      42       -0.224084        0.600240       -0.802313
    Mo                4.813627        4.631589        7.891106      42       -0.579461        1.150653       -0.117750
    Mo                4.725826        7.835615        1.613221      42       -0.302014        0.566701       -0.598081
    Mo                4.807314        7.842088        4.746673      42       -1.302650       -0.127404       -0.100139
    Mo                4.692448        7.919107        7.948034      42        0.442701       -0.811806       -1.005709
    Mo                7.925807        1.561065        1.646551      42       -0.245289        0.484484       -0.711845
    Mo                7.866772        1.597590        4.765819      42        0.511007       -0.429148       -0.865748
    Mo                7.921280        1.541901        7.864230      42       -0.796671        1.180884        0.263176
    Mo                7.923737        4.838093        1.576904      42       -0.778980       -1.317742        0.276421
    Mo                7.945539        4.705385        4.745085      42       -1.327762        0.335820       -0.485080
    Mo                8.008278        4.680267        7.969684      42       -2.128585        0.359632       -1.506283
    Mo                7.906746        7.910271        1.589936      42       -0.502154       -0.056765       -0.226648
    Mo                7.903287        7.871308        4.805528      42       -0.326671        0.204188       -1.008898
    Mo                7.871913        8.014222        7.936675      42       -0.527229       -2.045331       -1.043930
    54
    dft_energy=-582.26544617 dft_virial={0.0	0.0	0.0	0.0	0.0	0.0	0.0	0.0	0.0} Lattice="9.450121     0.0     0.0     0.0     9.450121     0.0     0.0     0.0     9.450121" Properties=species:S:1:pos:R:3:Z:I:1:dft_force:R:3
    Mo                9.362424        0.009856        9.371279      42        1.375909       -0.437065        1.106958
    Mo                9.414494        0.057929        3.074587      42        0.592778        0.037480        0.726795
    Mo                0.013051        9.401793        6.312549      42       -0.024686        0.618234       -0.585987
    Mo                9.432648        3.169977        0.001985      42        0.376951       -0.005594       -0.071259
    Mo                9.394583        3.240617        3.072272      42        0.884453       -0.705239        1.001863
    Mo                9.427242        3.190966        6.288498      42        0.956759       -0.696254        0.005744
    Mo                9.364011        6.247031        0.041495      42        0.628025        0.729079       -0.948630
    Mo                9.343476        6.424088        3.109770      42        1.153574       -1.387697        0.453415
    Mo                9.390718        6.253882        6.181258      42        0.629917        0.610090        1.640588
    Mo                3.117066        0.006143        9.397985      42        0.423404       -0.711713        0.540803
    Mo                3.085540        0.100786        3.076033      42        1.029008       -1.602126        0.587992
    Mo                3.097532        9.356565        6.200678      42        0.662186        0.648091        1.124881
    Mo                3.086967        3.044035        9.339526      42        0.980505        1.367001        1.776406
    Mo                3.132158        3.165138        3.143725      42        0.689034       -0.247505        0.134607
    Mo                3.183689        3.095132        6.315138      42        0.047865        0.468866       -0.286794
    Mo                3.050225        6.308088        0.048848      42        1.288361       -0.206962       -0.833851
    Mo                3.118927        6.219361        3.056547      42        0.734249        1.467895        1.630072
    Mo                3.077706        6.361651        6.260384      42        0.762988       -1.064605        0.545935
    Mo                6.305858        0.060736        9.433923      42       -0.031092       -0.535894        0.277288
    Mo                6.356161        9.446360        3.148695      42       -0.955300       -0.183861        0.388990
    Mo                6.290246        9.422706        6.314183      42        0.211022        0.143007        0.261317
    Mo                6.248524        3.211047        0.004394      42        0.631808       -0.293093       -0.057890
    Mo                6.323000        3.112227        3.078216      42       -0.687115        0.125208        1.445125
    Mo                6.362691        3.132621        6.293412      42       -0.675786       -0.048197        0.259886
    Mo                6.249223        6.393536        9.440000      42        0.167533       -0.634019        0.139547
    Mo                6.312993        6.233961        3.114949      42       -0.850364        1.066062        0.656161
    Mo                6.240123        6.255290        6.261319      42        0.484786        0.594683        0.637697
    Mo                1.630231        1.578671        1.553846      42       -1.079190        0.187783       -0.329046
    Mo                1.626404        1.619146        4.687685      42       -0.934875       -0.046934        0.221341
    Mo                1.696476        1.454695        7.812103      42       -1.389880        1.140549        0.235623
    Mo                1.635958        4.743554        1.653535      42       -1.248348       -0.735802       -1.075975
    Mo                1.606086        4.774126        4.781638      42       -0.250969       -0.549538       -0.730346
    Mo                1.676555        4.652880        7.911414      42       -1.451307        0.712951       -0.317314
    Mo                1.567444        7.811857        1.616519      42       -0.217837        1.148697       -0.796699
    Mo                1.582961        7.928264        4.639858      42       -0.437559       -0.595320        0.621103
    Mo                1.567255        7.841606        7.943611      42       -0.508265       -0.380126       -0.851343
    Mo                4.807343        1.521479        1.625090      42       -0.986118        0.969330        0.132816
    Mo                4.714722        1.402568        4.906106      42        0.552305        2.080238       -1.834406
    Mo                4.821433        1.631469        8.019363      42       -0.457705       -0.767807       -1.905725
    Mo                4.774135        4.699139        1.622151      42       -1.032762        0.183017       -0.188413
    Mo                4.784851        4.680758        4.847997      42       -0.674358       -0.332367       -1.268583
    Mo                4.769608        4.812313        7.987904      42       -0.770173       -0.749296       -1.001438
    Mo                4.755017        7.950481        1.549423      42       -0.444239       -0.854931        0.549806
    Mo                4.726365        7.826741        4.732696      42        0.109019       -0.068187       -0.695777
    Mo                4.753638        7.896068        7.889131      42       -0.858809       -0.006568       -0.171118
    Mo                7.857473        1.604952        1.585967      42        0.789917       -0.070059       -0.257501
    Mo                7.906841        1.594387        4.730957      42        0.010903       -0.102990        0.179272
    Mo                8.021178        1.597089        7.961273      42       -1.425841        0.083404       -1.375299
    Mo                7.794224        4.747410        1.566528      42        1.240474       -0.009221       -0.099934
    Mo                7.912454        4.720846        4.701473      42       -0.521719        0.068561       -0.004227
    Mo                7.849601        4.726006        7.873954      42        0.618374        0.097560       -0.036399
    Mo                7.894754        7.917945        1.605840      42       -0.605841       -0.167023       -0.475118
    Mo                7.905140        7.904781        4.831658      42       -0.501822       -0.184345       -1.582462
    Mo                7.809259        7.867490        7.858929      42        0.989850       -0.167448        0.499502
    54
    dft_energy=-582.42044589 dft_virial={0.0	0.0	0.0	0.0	0.0	0.0	0.0	0.0	0.0} Lattice="9.450121     0.0     0.0     0.0     9.450121     0.0     0.0     0.0     9.450121" Properties=species:S:1:pos:R:3:Z:I:1:dft_force:R:3
    Mo                9.440983        9.418085        0.147441      42        0.083081        0.056332       -1.632125
    Mo                9.371647        0.074977        3.132772      42        0.698205       -0.876979        0.661075
    Mo                0.039605        9.361649        6.355462      42       -0.746839        1.518348       -0.596161
    Mo                9.338213        3.178888        0.026139      42        1.392167       -0.431980       -0.557693
    Mo                0.047846        3.236619        3.153430      42       -0.314946       -1.071175        0.171094
    Mo                9.350271        3.176838        6.423011      42        0.965204       -0.662288       -1.203134
    Mo                9.445953        6.296408        0.003704      42        0.242961        0.110954        0.081783
    Mo                9.413284        6.287156        3.198044      42        0.830805        0.113466       -0.558370
    Mo                0.017738        6.355386        6.290435      42       -0.154760       -1.096723        0.217903
    Mo                3.095888        0.141723        0.063599      42        0.765385       -1.666608       -0.208784
    Mo                3.130560        0.043575        3.189227      42       -0.085437       -0.279796       -0.632211
    Mo                3.096653        9.438705        6.302125      42        0.661007        0.241807       -0.026021
    Mo                3.129313        3.208807        9.382666      42       -0.319926       -0.160787        0.455374
    Mo                3.165346        3.222586        3.117226      42        0.097147       -0.915933        0.230777
    Mo                3.089556        3.144726        6.271847      42       -0.008602       -0.367030        0.139161
    Mo                3.185031        6.388527        0.008127      42       -0.229518       -0.618232       -0.019746
    Mo                3.185277        6.331836        3.146673      42       -0.401333       -0.461393        0.229790
    Mo                3.092580        6.315280        6.321847      42        1.114520        0.116597       -0.185321
    Mo                6.307767        9.428140        9.413455      42        0.055265       -0.251353        0.390072
    Mo                6.260979        0.015149        3.064750      42        0.789946       -0.005413        0.733491
    Mo                6.233442        0.104093        6.343753      42        0.979655       -1.415115       -1.443273
    Mo                6.226581        3.103193        0.051257      42        0.764078        0.693036       -0.773558
    Mo                6.363853        3.142789        3.222879      42       -0.782159        0.237004       -0.864943
    Mo                6.200848        3.194046        6.382527      42        1.222479       -0.389745       -1.253651
    Mo                6.318937        6.258569        0.091411      42       -0.096838        0.227253       -1.172369
    Mo                6.286372        6.359818        3.218966      42        0.696179       -1.638218       -1.163618
    Mo                6.296786        6.331364        6.254733      42        0.052978       -0.264939        0.886460
    Mo                1.564212        1.652278        1.600964      42        0.357990       -0.714282       -0.270710
    Mo                1.465770        1.526790        4.642589      42        1.294304        0.501859        1.349377
    Mo                1.572302        1.476156        7.965904      42       -0.438866        1.691312       -1.158778
    Mo                1.585891        4.704610        1.571480      42        0.057818        0.640302       -0.242510
    Mo                1.651598        4.690256        4.755244      42       -0.776963        0.309320       -0.262408
    Mo                1.560640        4.805755        7.853013      42        0.140947       -0.920677        0.512070
    Mo                1.599735        7.812500        1.662116      42       -0.034743        0.812146       -0.789627
    Mo                1.578057        7.823179        4.709061      42        0.495644        0.647281        0.330184
    Mo                1.644756        7.911717        7.952192      42       -0.537693       -0.565709       -0.446107
    Mo                4.785598        1.553968        1.475788      42       -0.922961        0.259021        1.262120
    Mo                4.743356        1.505603        4.650055      42       -0.703818        0.752297        0.534453
    Mo                4.764581        1.606511        7.820580      42       -1.459760       -0.370952        0.446423
    Mo                4.696483        4.685408        1.535701      42        0.558256        0.413264        0.455042
    Mo                4.724210        4.673888        4.744159      42        0.343821        0.405691       -0.458165
    Mo                4.746474        4.679983        7.819767      42       -0.663506        1.244047        0.742266
    Mo                4.752107        7.830890        1.565346      42       -0.040406        0.670619       -0.292173
    Mo                4.870167        7.808900        4.609344      42       -2.066550        1.119837        1.699846
    Mo                4.787176        7.950803        7.883196      42       -0.660062       -1.000271       -0.406092
    Mo                7.917122        1.591826        1.481788      42       -0.771882       -0.670585        1.040028
    Mo                7.876638        1.598053        4.653911      42       -0.254760       -0.484732        0.895442
    Mo                7.801661        1.488734        7.832771      42        1.234387        0.844302        0.447457
    Mo                7.895189        4.622196        1.534378      42       -0.596663        1.433107        0.641440
    Mo                7.986420        4.669210        4.679161      42       -1.346970        0.687300        0.988464
    Mo                7.843298        4.718549        7.872357      42        0.097214        0.222815       -0.123468
    Mo                7.928198        7.776930        1.604205      42       -0.679353        0.909287       -0.464715
    Mo                7.911925        7.852795        4.739557      42       -0.164192        0.505665       -0.512460
    Mo                7.943583        7.851794        7.735860      42       -0.731936       -0.083352        2.176603
    54
    dft_energy=-582.07978734 dft_virial={0.0	0.0	0.0	0.0	0.0	0.0	0.0	0.0	0.0} Lattice="9.450121     0.0     0.0     0.0     9.450121     0.0     0.0     0.0     9.450121" Properties=species:S:1:pos:R:3:Z:I:1:dft_force:R:3
    Mo                0.033803        0.065442        9.379850      42       -0.544058       -1.007521        0.687960
    Mo                9.413436        0.096174        3.173795      42        0.266095       -0.688249       -0.272469
    Mo                0.021140        0.044293        6.271270      42       -0.425962       -0.809032       -0.137078
    Mo                9.431438        3.167879        0.007777      42        0.458926       -0.543591       -0.432876
    Mo                9.379217        3.181629        3.108844      42        1.192538       -0.087157        0.407868
    Mo                0.038717        3.249982        6.246719      42       -0.247277       -1.559531        0.428331
    Mo                9.345622        6.266498        0.137622      42        1.305613        0.499003       -1.953775
    Mo                9.411319        6.459526        3.148960      42        0.548338       -2.229956        0.434214
    Mo                9.433328        6.299904        6.301917      42        0.027186        0.107642        0.231573
    Mo                3.090672        0.037753        9.427072      42        0.842652       -0.606108       -0.057863
    Mo                3.082989        0.006757        3.131458      42        1.075354        0.063430        0.309424
    Mo                3.085635        0.019411        6.319249      42        1.344226       -0.470701       -0.744552
    Mo                3.146030        3.200085        0.084909      42        0.328234       -0.757753       -0.964905
    Mo                3.131458        3.189917        3.199603      42        0.320062       -0.488156       -0.730311
    Mo                3.126440        3.258619        6.289122      42        0.823887       -1.816112        0.165908
    Mo                2.991700        6.404999        9.439868      42        1.817892       -1.543499        0.370972
    Mo                3.109695        6.428095        3.208789      42        0.698253       -1.743783       -0.740940
    Mo                3.086485        6.273501        6.319872      42        0.640980        0.186461       -0.044258
    Mo                6.212018        0.091487        0.030968      42        1.350684       -1.190803       -0.616508
    Mo                6.234065        0.008722        3.202079      42        1.071505       -0.723840       -0.426328
    Mo                6.231996        0.007834        6.402060      42        1.134917       -0.204550       -1.001061
    Mo                6.294537        3.199830        0.133899      42       -0.028610       -0.386637       -1.818779
    Mo                6.257228        3.068558        3.173133      42        0.586999        0.865210        0.093160
    Mo                6.304677        3.236789        6.357919      42        0.181144       -1.213014       -0.491354
    Mo                6.281732        6.366490        9.434783      42       -0.273633       -0.644062        0.226168
    Mo                6.239216        6.344008        3.098005      42        0.620053       -0.740004        0.461342
    Mo                6.194299        6.300178        6.324286      42        1.664935       -0.499022       -0.387872
    Mo                1.655189        1.512265        1.542014      42       -1.067864        0.949876        0.273381
    Mo                1.650747        1.583944        4.668114      42       -0.829521        0.191493        0.471797
    Mo                1.634191        1.459959        7.789498      42       -0.552206        1.689763        0.805242
    Mo                1.625156        4.709978        1.571848      42       -0.965580        0.157466        0.579376
    Mo                1.618286        4.738858        4.724853      42       -0.453556        0.226706       -0.417120
    Mo                1.607796        4.548268        7.933726      42       -0.587609        2.160642       -0.497781
    Mo                1.576290        7.829605        1.621178      42       -0.139398        1.161267       -0.860677
    Mo                1.647288        7.872688        4.706113      42       -1.068441        0.441625        0.529004
    Mo                1.607598        7.806187        7.831466      42       -1.201034        0.373689        0.447943
    Mo                4.764874        1.489235        1.535928      42       -0.678186        1.144369        0.673783
    Mo                4.806813        1.460063        4.692184      42       -1.132019        1.235689        0.517503
    Mo                4.728103        1.559242        7.833064      42        0.012584        0.516918        0.564112
    Mo                4.696824        4.697258        1.569665      42        0.403891        0.683946        0.140555
    Mo                4.766150        4.641446        4.639329      42       -0.146756        0.979042        0.941346
    Mo                4.734492        4.708665        7.874521      42       -0.161414        0.025956        0.341213
    Mo                4.701104        7.880635        1.526667      42        0.227913       -0.005005        0.517759
    Mo                4.803383        7.810809        4.840928      42       -1.103042        0.567984       -1.572140
    Mo                4.728453        7.772999        7.830125      42       -0.536732        1.277437        1.181157
    Mo                7.913919        1.588367        1.528614      42       -0.344839       -0.328286        0.460888
    Mo                7.897022        1.551871        4.774428      42       -0.126411        0.059072       -0.751455
    Mo                7.999811        1.531940        7.788289      42       -1.324558        0.901906        1.056379
    Mo                7.896833        4.690917        1.563456      42       -0.709079        0.666873        0.557325
    Mo                7.968635        4.676411        4.704072      42       -1.351072        0.591374       -0.208991
    Mo                7.921781        4.723322        7.835388      42       -0.562500       -0.018898        0.785198
    Mo                7.998592        7.899129        1.566669      42       -2.100146        0.550907       -0.052973
    Mo                7.913172        7.753125        4.705130      42       -0.614305        1.829910        0.512772
    Mo                7.857057        7.856188        7.877111      42        0.330946        0.199617        0.008410
    </XYZ_data>
</GAP_params>
</GAP_2019_4_25_-420_20_28_39_356>